digraph Tree {
node [shape=box, style="filled, rounded", color="black", fontname=helvetica] ;
edge [fontname=helvetica] ;
0 [label="V14 <= -1.74\ngini = 0.47\nsamples = 320\nvalue = [314, 183]\nclass = 0", fillcolor="#f4caac"] ;
1 [label="V7 <= 0.26\ngini = 0.08\nsamples = 103\nvalue = [7, 151]\nclass =  1", fillcolor="#42a2e6"] ;
0 -> 1 [labeldistance=2.5, labelangle=45, headlabel="True"] ;
2 [label="gini = 0.0\nsamples = 90\nvalue = [0, 141]\nclass =  1", fillcolor="#399de5"] ;
1 -> 2 ;
3 [label="V28 <= 0.09\ngini = 0.48\nsamples = 13\nvalue = [7, 10]\nclass =  1", fillcolor="#c4e2f7"] ;
1 -> 3 ;
4 [label="V17 <= 1.4\ngini = 0.42\nsamples = 8\nvalue = [7, 3]\nclass = 0", fillcolor="#f0b78e"] ;
3 -> 4 ;
5 [label="gini = 0.0\nsamples = 1\nvalue = [0, 1]\nclass =  1", fillcolor="#399de5"] ;
4 -> 5 ;
6 [label="V16 <= 1.45\ngini = 0.35\nsamples = 7\nvalue = [7, 2]\nclass = 0", fillcolor="#eca572"] ;
4 -> 6 ;
7 [label="gini = 0.0\nsamples = 5\nvalue = [7, 0]\nclass = 0", fillcolor="#e58139"] ;
6 -> 7 ;
8 [label="gini = 0.0\nsamples = 2\nvalue = [0, 2]\nclass =  1", fillcolor="#399de5"] ;
6 -> 8 ;
9 [label="gini = 0.0\nsamples = 5\nvalue = [0, 7]\nclass =  1", fillcolor="#399de5"] ;
3 -> 9 ;
10 [label="V19 <= -0.9\ngini = 0.17\nsamples = 217\nvalue = [307, 32]\nclass = 0", fillcolor="#e88e4e"] ;
0 -> 10 [labeldistance=2.5, labelangle=-45, headlabel="False"] ;
11 [label="V12 <= -0.13\ngini = 0.47\nsamples = 26\nvalue = [30, 19]\nclass = 0", fillcolor="#f5d1b6"] ;
10 -> 11 ;
12 [label="V27 <= 0.19\ngini = 0.36\nsamples = 12\nvalue = [6, 19]\nclass =  1", fillcolor="#78bced"] ;
11 -> 12 ;
13 [label="V6 <= 0.13\ngini = 0.24\nsamples = 11\nvalue = [3, 19]\nclass =  1", fillcolor="#58ace9"] ;
12 -> 13 ;
14 [label="gini = 0.0\nsamples = 7\nvalue = [0, 16]\nclass =  1", fillcolor="#399de5"] ;
13 -> 14 ;
15 [label="V26 <= 0.11\ngini = 0.5\nsamples = 4\nvalue = [3, 3]\nclass = 0", fillcolor="#ffffff"] ;
13 -> 15 ;
16 [label="gini = 0.0\nsamples = 3\nvalue = [3, 0]\nclass = 0", fillcolor="#e58139"] ;
15 -> 16 ;
17 [label="gini = 0.0\nsamples = 1\nvalue = [0, 3]\nclass =  1", fillcolor="#399de5"] ;
15 -> 17 ;
18 [label="gini = 0.0\nsamples = 1\nvalue = [3, 0]\nclass = 0", fillcolor="#e58139"] ;
12 -> 18 ;
19 [label="gini = 0.0\nsamples = 14\nvalue = [24, 0]\nclass = 0", fillcolor="#e58139"] ;
11 -> 19 ;
20 [label="V4 <= 1.15\ngini = 0.09\nsamples = 191\nvalue = [277, 13]\nclass = 0", fillcolor="#e68742"] ;
10 -> 20 ;
21 [label="V7 <= -1.22\ngini = 0.03\nsamples = 164\nvalue = [247, 4]\nclass = 0", fillcolor="#e5833c"] ;
20 -> 21 ;
22 [label="V8 <= -1.36\ngini = 0.24\nsamples = 5\nvalue = [6, 1]\nclass = 0", fillcolor="#e9965a"] ;
21 -> 22 ;
23 [label="gini = 0.0\nsamples = 1\nvalue = [0, 1]\nclass =  1", fillcolor="#399de5"] ;
22 -> 23 ;
24 [label="gini = 0.0\nsamples = 4\nvalue = [6, 0]\nclass = 0", fillcolor="#e58139"] ;
22 -> 24 ;
25 [label="V17 <= 0.87\ngini = 0.02\nsamples = 159\nvalue = [241, 3]\nclass = 0", fillcolor="#e5833b"] ;
21 -> 25 ;
26 [label="V10 <= 0.52\ngini = 0.01\nsamples = 150\nvalue = [232, 1]\nclass = 0", fillcolor="#e5823a"] ;
25 -> 26 ;
27 [label="gini = 0.0\nsamples = 119\nvalue = [187, 0]\nclass = 0", fillcolor="#e58139"] ;
26 -> 27 ;
28 [label="V9 <= -0.15\ngini = 0.04\nsamples = 31\nvalue = [45, 1]\nclass = 0", fillcolor="#e6843d"] ;
26 -> 28 ;
29 [label="gini = 0.0\nsamples = 23\nvalue = [37, 0]\nclass = 0", fillcolor="#e58139"] ;
28 -> 29 ;
30 [label="V19 <= -0.69\ngini = 0.2\nsamples = 8\nvalue = [8, 1]\nclass = 0", fillcolor="#e89152"] ;
28 -> 30 ;
31 [label="gini = 0.0\nsamples = 1\nvalue = [0, 1]\nclass =  1", fillcolor="#399de5"] ;
30 -> 31 ;
32 [label="gini = 0.0\nsamples = 7\nvalue = [8, 0]\nclass = 0", fillcolor="#e58139"] ;
30 -> 32 ;
33 [label="scaled_amount <= -0.35\ngini = 0.3\nsamples = 9\nvalue = [9, 2]\nclass = 0", fillcolor="#eb9d65"] ;
25 -> 33 ;
34 [label="gini = 0.0\nsamples = 2\nvalue = [0, 2]\nclass =  1", fillcolor="#399de5"] ;
33 -> 34 ;
35 [label="gini = 0.0\nsamples = 7\nvalue = [9, 0]\nclass = 0", fillcolor="#e58139"] ;
33 -> 35 ;
36 [label="V23 <= 0.34\ngini = 0.36\nsamples = 27\nvalue = [30, 9]\nclass = 0", fillcolor="#eda774"] ;
20 -> 36 ;
37 [label="V13 <= -0.07\ngini = 0.28\nsamples = 26\nvalue = [30, 6]\nclass = 0", fillcolor="#ea9a61"] ;
36 -> 37 ;
38 [label="V27 <= 0.03\ngini = 0.42\nsamples = 12\nvalue = [12, 5]\nclass = 0", fillcolor="#f0b58b"] ;
37 -> 38 ;
39 [label="gini = 0.0\nsamples = 4\nvalue = [8, 0]\nclass = 0", fillcolor="#e58139"] ;
38 -> 39 ;
40 [label="V5 <= 0.18\ngini = 0.49\nsamples = 8\nvalue = [4, 5]\nclass =  1", fillcolor="#d7ebfa"] ;
38 -> 40 ;
41 [label="V25 <= 0.51\ngini = 0.32\nsamples = 5\nvalue = [4, 1]\nclass = 0", fillcolor="#eca06a"] ;
40 -> 41 ;
42 [label="gini = 0.0\nsamples = 4\nvalue = [4, 0]\nclass = 0", fillcolor="#e58139"] ;
41 -> 42 ;
43 [label="gini = 0.0\nsamples = 1\nvalue = [0, 1]\nclass =  1", fillcolor="#399de5"] ;
41 -> 43 ;
44 [label="gini = 0.0\nsamples = 3\nvalue = [0, 4]\nclass =  1", fillcolor="#399de5"] ;
40 -> 44 ;
45 [label="V11 <= 1.11\ngini = 0.1\nsamples = 14\nvalue = [18, 1]\nclass = 0", fillcolor="#e68844"] ;
37 -> 45 ;
46 [label="gini = 0.0\nsamples = 13\nvalue = [18, 0]\nclass = 0", fillcolor="#e58139"] ;
45 -> 46 ;
47 [label="gini = 0.0\nsamples = 1\nvalue = [0, 1]\nclass =  1", fillcolor="#399de5"] ;
45 -> 47 ;
48 [label="gini = 0.0\nsamples = 1\nvalue = [0, 3]\nclass =  1", fillcolor="#399de5"] ;
36 -> 48 ;
}